svm_type c_svc
kernel_type rbf
gamma 0.16666666666666666
nr_class 2
total_sv 51
rho -0.30735299797488769
label 0 1
nr_sv 35 16
SV
1.9349848219401278 1:0 2:0 3:0 4:0 5:0 6:0 
0.69253563230770343 1:6.5773218e+08 2:211053.13 3:-0.95435099 4:0.022280062 5:0.014415014 6:3.3989173 
0.69287545013334229 1:2.3356382e+08 2:94872.175 3:1.1628643 4:0.01171265 5:0.0070822011 6:3.5134291 
0.692799274711696 1:1.0191069e+09 2:140688.71 3:-0.17773566 4:0.0067673087 5:0.0039829938 6:2.795128 
0.69253563230770343 1:6433929.1 2:14652.571 3:0.70893951 4:0.012493493 5:0.0066738529 6:3.7788882 
0.02578478013508842 1:0.0029655157 2:0.50226821 3:-1.0044077 4:0.054817702 5:0.037245052 6:10.444547 
2.2798383530622703 1:0.026978311 2:1.1982693 3:-0.17381001 4:0.038683128 5:0.030277886 6:3.7502939 
1.0842973131692373 1:0.00079442568 2:0.088790764 3:0.96999218 4:0.011764706 5:0.011303092 6:7.2126054 
0.36918749087181774 1:0.024403706 2:1.5908593 3:0.059610295 4:0.11677518 5:0.092933962 6:37.457503 
0.3650558402457787 1:0.0088248257 2:0.39048808 3:-0.21960169 4:0.028599183 5:0.015367576 6:15.081564 
0.42857017658541569 1:0.026481214 2:1.6676767 3:0.42213521 4:0.13444146 5:0.10624197 6:38.841855 
0.68079951171358311 1:0.020508489 2:1.2601146 3:0.4480719 4:0.10270883 5:0.076163726 6:32.860032 
0.0081238439092659737 1:0.75924115 2:2.9864842 3:0.011894421 4:0.01879906 5:0.011213934 6:9.5485677 
0.14499768744663494 1:0.51853666 2:4.0604922 3:0.37354955 4:0.02899855 5:0.014816576 6:10.938359 
0.058218932630593904 1:0.33953664 2:5.6823436 3:0.37114788 4:0.025993502 5:0.039402302 6:14.988758 
0.33390988092389806 1:0.28943903 2:2.7091217 3:0.89199374 4:0.024621878 5:0.0096320942 6:12.053459 
0.37745675847867149 1:0.0017786746 2:0.22341684 3:0.054842234 4:0.022648868 5:0.013331133 6:12.903065 
0.45852858231322663 1:0.0018642573 2:0.21262667 3:-0.92368472 4:0.016649168 5:0.012477981 6:21.511773 
0.4188178076775847 1:0.0062784293 2:1.6879548 3:-3.3827812 4:0.035848208 5:0.019268659 6:10.243463 
0.2012389197373004 1:0.024377491 2:1.3456674 3:-0.57900808 4:0.0082495875 5:0.0062821544 6:8.0187972 
0.22086385200289366 1:0.0021381177 2:0.9936105 3:-3.1577263 4:0.044747763 5:0.027341912 6:8.913663 
0.55557965169510848 1:0.046023632 2:2.3934666 3:0.91406372 4:0.047899042 5:0.022633547 6:22.982621 
1.8022103705963362 1:0.01802644 2:0.68760655 3:1.4083699 4:0.0029142025 5:0.0018982994 6:2.7826186 
2.1868225716040128 1:0.018582702 2:0.79623223 3:-0.4084435 4:0.0030570555 5:0.0019191366 6:5.1567009 
0.0095276694422623699 1:0.038452324 2:0.82259206 3:0.25612344 4:0.021129032 5:0.012740887 6:15.529753 
0.35045201319446184 1:0.069212798 2:1.437808 3:0.18449887 4:0.018870968 5:0.011513864 6:8.4179971 
0.55215804868742613 1:0.32378775 2:6.2274983 3:1.1406013 4:0.011960784 5:0.0046317164 6:18.084689 
0.35441368194706446 1:0.39212398 2:5.9496104 3:1.6694597 4:0.0080392157 5:0.0039229241 6:15.016663 
0.23400051368181665 1:0.15060146 2:5.1523094 3:0.42462052 4:0.024509804 5:0.021190788 6:14.850029 
0.51360621217181379 1:0.14703334 2:4.8102946 3:-1.0300067 4:0.031764706 5:0.019465317 6:9.5961576 
0.34465937657520845 1:0.0040838728 2:0.32345773 3:1.1691337 4:0.1262069 5:0.10900673 6:19.062392 
0.4353386856099089 1:0.056352468 2:2.6628933 3:-0.8924398 4:0.0840625 5:0.06433415 6:17.707683 
0.10492703130673066 1:0.040043705 2:2.1858625 3:-0.38598923 4:0.08 5:0.21662607 6:20.879121 
0.025257337332683035 1:0.046433771 2:0.86352858 3:-0.7023344 4:0.041404959 5:0.031623871 6:17.864816 
0.17503687792473505 1:0.034678764 2:0.78102845 3:1.1380304 4:0.044132231 5:0.030438904 6:17.765659 
-2.7858562716533042 1:0.2233685 2:1.9774155 3:0.55169289 4:0.00083542189 5:0.00088011035 6:4.4497661 
-2.8241751292031303 1:0.35412239 2:1.5567471 3:0.51410965 4:0.00047340574 5:0.00066216711 6:5.6749833 
-1.305911354310082 1:56.066256 2:39.995041 3:3.836104 4:5.4929964e-05 5:0.00035799189 6:0.10985691 
-0.32430713761136704 1:0.5330936 2:4.1103153 3:-0.94739219 4:0.0008668015 5:0.00089946294 6:0.11990408 
-0.96855284323752855 1:7.4774908 2:10.006061 3:0.20485037 4:0.00088483528 5:0.00087531174 6:0.22596717 
-0.34027417063486043 1:2.5458345 2:5.361043 3:0.60041655 4:0.0006187268 5:0.00073936678 6:0.16361437 
-0.61326438535010097 1:1.8999145 2:5.5544901 3:-0.86556258 4:0.00031285552 5:0.00048288205 6:1.1262158 
-1.305911354310082 1:61.912463 2:37.356961 3:3.5854943 4:5.4929964e-05 5:0.00035944576 6:0.10985691 
-0.090467283548738661 1:2.3895029 2:4.6052654 3:-0.39972545 4:0.00069271991 5:0.00081627283 6:0.31498327 
-0.5576345166957446 1:8.6118878 2:13.560671 3:0.047545217 4:0.00082584406 5:0.0009003639 6:0.15423478 
-1.3067193162547031 1:20.619554 2:17.552393 3:0.4194148 4:0.0020883534 5:0.0017560161 6:0.61842422 
-1.2756974499392337 1:13.963611 2:16.110469 3:1.0951646 4:0.0034538153 5:0.0022020608 6:0.77905389 
-0.90989028706496744 1:10.098837 2:13.761501 3:1.1081573 4:0.0015261044 5:0.0015283909 6:0.55015661 
-0.92696889204944366 1:5.728064 2:12.061088 3:0.28674231 4:0.0063453815 5:0.003870465 6:0.81117982 
-3.2663628658913213 1:0.11400354 2:1.5987442 3:0.54962445 4:0.0041635125 5:0.0032411924 6:1.044505 
-1.0034173263187931 1:1.4141573 2:6.7477107 3:1.9760972 4:0.0049352751 5:0.004233452 6:1.0516098 
